
~h "proto"
<BEGINHMM>
<NUMSTATES> 5
<STATE> 2
<MEAN> 39
 -9.160625e+00 1.420745e+00 -1.653357e+00 -2.264836e+00 -9.523253e-02 -2.537336e+00 1.046899e-01 7.474999e-01 2.254359e+00 -3.301126e-01 1.610398e+00 6.292889e-01 6.111118e+01 1.609667e-03 -8.649959e-03 -4.460111e-03 -1.063289e-02 -3.226142e-03 -9.726599e-03 -8.238268e-03 -6.189568e-03 -2.252035e-03 -1.090795e-02 -2.797719e-03 -4.521055e-03 1.385254e-02 -1.016358e-03 -3.543069e-04 1.032027e-03 -3.890198e-05 -8.952868e-05 1.043128e-04 -1.846945e-04 6.471710e-05 4.519484e-04 3.805351e-04 3.997810e-04 -4.388673e-04 1.248663e-03
<VARIANCE> 39
 2.009851e+01 1.110311e+01 1.009889e+01 1.492204e+01 1.674601e+01 3.461253e+01 2.775826e+01 2.279469e+01 2.044130e+01 2.101830e+01 2.014599e+01 1.761274e+01 2.615283e+01 2.375050e-01 3.908129e-01 4.738291e-01 6.407220e-01 8.403275e-01 9.805015e-01 1.260262e+00 1.221154e+00 1.282704e+00 1.267515e+00 1.292143e+00 1.226004e+00 2.553737e-01 3.823133e-02 7.648564e-02 9.295773e-02 1.273856e-01 1.671689e-01 1.953402e-01 2.540197e-01 2.429164e-01 2.564432e-01 2.553665e-01 2.643497e-01 2.500642e-01 4.267419e-02
<GCONST> 8.128603e+01
<STATE> 3
<MEAN> 39
 -9.160625e+00 1.420745e+00 -1.653357e+00 -2.264836e+00 -9.523253e-02 -2.537336e+00 1.046899e-01 7.474999e-01 2.254359e+00 -3.301126e-01 1.610398e+00 6.292889e-01 6.111118e+01 1.609667e-03 -8.649959e-03 -4.460111e-03 -1.063289e-02 -3.226142e-03 -9.726599e-03 -8.238268e-03 -6.189568e-03 -2.252035e-03 -1.090795e-02 -2.797719e-03 -4.521055e-03 1.385254e-02 -1.016358e-03 -3.543069e-04 1.032027e-03 -3.890198e-05 -8.952868e-05 1.043128e-04 -1.846945e-04 6.471710e-05 4.519484e-04 3.805351e-04 3.997810e-04 -4.388673e-04 1.248663e-03
<VARIANCE> 39
 2.009851e+01 1.110311e+01 1.009889e+01 1.492204e+01 1.674601e+01 3.461253e+01 2.775826e+01 2.279469e+01 2.044130e+01 2.101830e+01 2.014599e+01 1.761274e+01 2.615283e+01 2.375050e-01 3.908129e-01 4.738291e-01 6.407220e-01 8.403275e-01 9.805015e-01 1.260262e+00 1.221154e+00 1.282704e+00 1.267515e+00 1.292143e+00 1.226004e+00 2.553737e-01 3.823133e-02 7.648564e-02 9.295773e-02 1.273856e-01 1.671689e-01 1.953402e-01 2.540197e-01 2.429164e-01 2.564432e-01 2.553665e-01 2.643497e-01 2.500642e-01 4.267419e-02
<GCONST> 8.128603e+01
<STATE> 4
<MEAN> 39
 -9.160625e+00 1.420745e+00 -1.653357e+00 -2.264836e+00 -9.523253e-02 -2.537336e+00 1.046899e-01 7.474999e-01 2.254359e+00 -3.301126e-01 1.610398e+00 6.292889e-01 6.111118e+01 1.609667e-03 -8.649959e-03 -4.460111e-03 -1.063289e-02 -3.226142e-03 -9.726599e-03 -8.238268e-03 -6.189568e-03 -2.252035e-03 -1.090795e-02 -2.797719e-03 -4.521055e-03 1.385254e-02 -1.016358e-03 -3.543069e-04 1.032027e-03 -3.890198e-05 -8.952868e-05 1.043128e-04 -1.846945e-04 6.471710e-05 4.519484e-04 3.805351e-04 3.997810e-04 -4.388673e-04 1.248663e-03
<VARIANCE> 39
 2.009851e+01 1.110311e+01 1.009889e+01 1.492204e+01 1.674601e+01 3.461253e+01 2.775826e+01 2.279469e+01 2.044130e+01 2.101830e+01 2.014599e+01 1.761274e+01 2.615283e+01 2.375050e-01 3.908129e-01 4.738291e-01 6.407220e-01 8.403275e-01 9.805015e-01 1.260262e+00 1.221154e+00 1.282704e+00 1.267515e+00 1.292143e+00 1.226004e+00 2.553737e-01 3.823133e-02 7.648564e-02 9.295773e-02 1.273856e-01 1.671689e-01 1.953402e-01 2.540197e-01 2.429164e-01 2.564432e-01 2.553665e-01 2.643497e-01 2.500642e-01 4.267419e-02
<GCONST> 8.128603e+01
<TRANSP> 5
 0.000000e+00 1.000000e+00 0.000000e+00 0.000000e+00 0.000000e+00
 0.000000e+00 6.000000e-01 4.000000e-01 0.000000e+00 0.000000e+00
 0.000000e+00 0.000000e+00 6.000000e-01 4.000000e-01 0.000000e+00
 0.000000e+00 0.000000e+00 0.000000e+00 7.000000e-01 3.000000e-01
 0.000000e+00 0.000000e+00 0.000000e+00 0.000000e+00 0.000000e+00
<ENDHMM>